a,0.7779482007026672,0.7666492462158203,-5.593071819021134e-07,0.7121360301971436,0.7575761079788208,-0.025931017473340034,0.6487901210784912,0.6800767183303833,-0.033538609743118286,0.619899332523346,0.579233705997467,-0.040969133377075195,0.6239433884620667,0.4975169003009796,-0.04161839187145233,0.6705825328826904,0.5532726645469666,0.007101194933056831,0.6561194062232971,0.4927515685558319,-0.024139199405908585,0.6706404685974121,0.5810234546661377,-0.036670465022325516,0.6789915561676025,0.5976718068122864,-0.041295070201158524,0.710358738899231,0.5393401980400085,0.006269725039601326,0.6930561661720276,0.4821959137916565,-0.0276612751185894,0.7030479311943054,0.5941068530082703,-0.030151300132274628,0.7099084854125977,0.5936422944068909,-0.022503947839140892,0.7488451600074768,0.5374094247817993,-0.002824263647198677,0.735945463180542,0.4861217141151428,-0.04036408290266991,0.739321231842041,0.5980053544044495,-0.02653886191546917,0.7445472478866577,0.6042036414146423,-0.00673431484028697,0.7900635004043579,0.5395325422286987,-0.014558950439095497,0.7759515643119812,0.5057633519172668,-0.034273628145456314,0.7740702629089355,0.5875465869903564,-0.022182418033480644,0.7787518501281738,0.6029360890388489,-0.007292802445590496
b,0.6787549257278442,0.9491900205612183,3.367584042734961e-07,0.6104127764701843,0.9035255908966064,-0.017964888364076614,0.5682632923126221,0.7995153069496155,-0.021732984110713005,0.5547313094139099,0.6995421648025513,-0.025550438091158867,0.5410873889923096,0.6263610124588013,-0.028216684237122536,0.5961195230484009,0.6570857167243958,0.005761799868196249,0.5891979336738586,0.5393086671829224,-0.007186384871602058,0.587051510810852,0.4686276614665985,-0.02166658453643322,0.5861176252365112,0.40531158447265625,-0.03266005963087082,0.6332401037216187,0.6364222764968872,0.0015659788623452187,0.6259424090385437,0.5076232552528381,-0.0077130445279181,0.6213304400444031,0.42766255140304565,-0.02065149135887623,0.6170451641082764,0.3583841621875763,-0.030741743743419647,0.667915403842926,0.6391894221305847,-0.0074517144821584225,0.6625946760177612,0.5194464921951294,-0.01758362166583538,0.6582103371620178,0.44462889432907104,-0.0261741541326046,0.6531675457954407,0.3794058561325073,-0.033129505813121796,0.7046599388122559,0.6611270308494568,-0.01944323070347309,0.7016409635543823,0.5647554397583008,-0.028616350144147873,0.6977854371070862,0.5040431022644043,-0.03185097873210907,0.6929108500480652,0.44822537899017334,-0.03443644940853119
c,0.7246950268745422,0.8748790621757507,-1.4566725603515351e-08,0.6413836479187012,0.871253252029419,0.01136046927422285,0.5668107867240906,0.8190877437591553,0.011584789492189884,0.513645350933075,0.7998490929603577,0.001657468848861754,0.46484100818634033,0.8023216128349304,-0.008505742065608501,0.5739580988883972,0.6130190491676331,0.048427749425172806,0.5342697501182556,0.508653461933136,0.038396574556827545,0.4990007281303406,0.4780813455581665,0.02218608185648918,0.4665772616863251,0.47167277336120605,0.009944727644324303,0.5953540205955505,0.591668426990509,0.024001942947506905,0.5500112771987915,0.4625733494758606,0.011040286161005497,0.5050966739654541,0.4411955177783966,-0.00521027622744441,0.46953779458999634,0.46018195152282715,-0.015043375082314014,0.6174187064170837,0.5864835977554321,-0.00531026441603899,0.5699878931045532,0.4589940309524536,-0.016974588856101036,0.5211190581321716,0.4390086233615875,-0.0266095083206892,0.48327168822288513,0.4535521864891052,-0.03169455751776695,0.6371788382530212,0.5976622104644775,-0.03588343784213066,0.5888354778289795,0.5032145977020264,-0.043786030262708664,0.5465466976165771,0.47085288166999817,-0.04771338775753975,0.5105713605880737,0.46322178840637207,-0.05028115212917328
d,0.6555888652801514,0.8031305074691772,-1.0996728860845906e-07,0.5871242880821228,0.7136355042457581,0.03164814040064812,0.5577616691589355,0.6308947801589966,0.03347623348236084,0.5295618176460266,0.5786272883415222,0.021692095324397087,0.5078381299972534,0.522404134273529,0.00806623138487339,0.6328893303871155,0.5083285570144653,0.04131510853767395,0.6243566274642944,0.39947861433029175,0.04046196863055229,0.6148311495780945,0.3420758843421936,0.037632010877132416,0.6042416095733643,0.2919442653656006,0.03268058970570564,0.6458814740180969,0.5126662254333496,0.010548991151154041,0.580010712146759,0.42246243357658386,6.601939821848646e-05,0.5354136228561401,0.4542139768600464,-0.007173873018473387,0.5175386071205139,0.4909250736236572,-0.01156662404537201,0.6443914771080017,0.534907341003418,-0.02027646265923977,0.580540657043457,0.4414949119091034,-0.029706427827477455,0.5333747863769531,0.4679299592971802,-0.028489049524068832,0.5113003253936768,0.5058771967887878,-0.027118325233459473,0.6312737464904785,0.565617024898529,-0.04969310015439987,0.5940827131271362,0.4792637228965759,-0.05538168549537659,0.5622692704200745,0.45689451694488525,-0.05387628823518753,0.543190598487854,0.46155619621276855,-0.05257830396294594
e,0.6566970944404602,0.7085020542144775,-2.6597544433570874e-07,0.60653156042099,0.6433926224708557,-0.011430326849222183,0.5888507962226868,0.5443763136863708,-0.019057873636484146,0.6230027675628662,0.48201194405555725,-0.030821118503808975,0.6695263385772705,0.4825039505958557,-0.040374644100666046,0.60832679271698,0.46023431420326233,0.002309327945113182,0.5996199250221252,0.3620961308479309,-0.020971395075321198,0.5877205729484558,0.3946825861930847,-0.03892677277326584,0.5899254679679871,0.4565698802471161,-0.04720485955476761,0.6387866139411926,0.45037412643432617,-0.00332621275447309,0.6333198547363281,0.342707097530365,-0.023795180022716522,0.6160270571708679,0.3734348714351654,-0.03592273220419884,0.6175389885902405,0.43614643812179565,-0.03889098018407822,0.6695729494094849,0.4577192962169647,-0.01322766114026308,0.6719579696655273,0.3475015163421631,-0.027305608615279198,0.6518282294273376,0.3628927171230316,-0.03442484885454178,0.648421585559845,0.41884544491767883,-0.03465866297483444,0.7015635371208191,0.4753253757953644,-0.025656146928668022,0.7081878185272217,0.3833376169204712,-0.03278110548853874,0.689271092414856,0.3723481595516205,-0.03568527102470398,0.6768808960914612,0.409842848777771,-0.035179514437913895
f,0.6330122351646423,0.7337027788162231,-2.3056968245782627e-07,0.5851281881332397,0.6917481422424316,0.005232056602835655,0.5539498329162598,0.6414756178855896,0.0017236729618161917,0.5269002914428711,0.60279780626297,-0.008335025981068611,0.5097960829734802,0.5527794361114502,-0.017606137320399284,0.588429868221283,0.518802285194397,0.0220789797604084,0.5562429428100586,0.4624190926551819,0.0039079939015209675,0.5298249125480652,0.4869609475135803,-0.015880702063441277,0.5162487030029297,0.5212085247039795,-0.027082962915301323,0.5999141335487366,0.49861663579940796,0.009090522304177284,0.57296222448349,0.4143286347389221,0.0003299811505712569,0.542027473449707,0.3747667074203491,-0.010776693001389503,0.5140689611434937,0.3446919620037079,-0.019664272665977478,0.6153700947761536,0.4943733513355255,-0.00788791198283434,0.6082183718681335,0.3956022262573242,-0.015214617364108562,0.5860233902931213,0.34301960468292236,-0.023703470826148987,0.5617664456367493,0.3063308298587799,-0.03076120838522911,0.6310772895812988,0.5049053430557251,-0.02584989182651043,0.6479217410087585,0.4274940490722656,-0.031860820949077606,0.6389427185058594,0.37426602840423584,-0.03671630471944809,0.621116578578949,0.33366358280181885,-0.04080941900610924
g,0.5831616520881653,0.7719710469245911,-7.680609570570596e-08,0.576127290725708,0.639997124671936,0.011497216299176216,0.5411884188652039,0.5624113082885742,0.015757879242300987,0.49428868293762207,0.5065576434135437,0.01933283917605877,0.46191516518592834,0.4800708293914795,0.021713703870773315,0.47064536809921265,0.590248167514801,-0.008216332644224167,0.39794623851776123,0.5815213322639465,-0.006757792085409164,0.35953229665756226,0.5848550796508789,-0.0050978087820112705,0.3321925401687622,0.5885607600212097,-0.003536670934408903,0.45038852095603943,0.6660979986190796,-0.008823370561003685,0.43130600452423096,0.6476086974143982,0.004008236341178417,0.45237499475479126,0.6515624523162842,0.01669127121567726,0.47689107060432434,0.657343864440918,0.022025084123015404,0.44897323846817017,0.7393366694450378,-0.006768583320081234,0.44322264194488525,0.7055476903915405,0.004532956518232822,0.46095243096351624,0.7136476635932922,0.014301424846053123,0.4814526438713074,0.726706326007843,0.01667037233710289,0.4508882164955139,0.802841305732727,-0.003266901010647416,0.45046940445899963,0.7672953605651855,0.009472553618252277,0.4700450003147125,0.772348940372467,0.020505521446466446,0.48722773790359497,0.7794530987739563,0.02677863836288452
h,0.6813899278640747,0.8182789087295532,1.7706939559047896e-07,0.6498318314552307,0.7001979351043701,0.02071487158536911,0.5936341285705566,0.6583991646766663,0.030533986166119576,0.5395704507827759,0.6681301593780518,0.03551360219717026,0.5054472088813782,0.6972609162330627,0.039609383791685104,0.5493507385253906,0.6314807534217834,0.014796914532780647,0.46617504954338074,0.6391353607177734,0.018255801871418953,0.42315900325775146,0.6446447372436523,0.02117869071662426,0.39131292700767517,0.6534538269042969,0.024266855791211128,0.532164990901947,0.6958484053611755,0.005221179220825434,0.4532719850540161,0.7013992667198181,0.009309529326856136,0.4047507047653198,0.7059469223022461,0.00888111162930727,0.37348318099975586,0.7117087841033936,0.00893358327448368,0.5288113951683044,0.7682638168334961,-0.0012317608343437314,0.48697781562805176,0.7967628836631775,0.008449274115264416,0.5113691687583923,0.803109884262085,0.014967447146773338,0.5357190370559692,0.7998753190040588,0.019664449617266655,0.5346044301986694,0.8395780324935913,-0.006586058065295219,0.5146082639694214,0.8486150503158569,0.006216657347977161,0.5366047024726868,0.8541425466537476,0.01736605539917946,0.557837963104248,0.8507214188575745,0.026409287005662918
i,0.7269954085350037,0.7166388034820557,-3.358350681992306e-07,0.6683932542800903,0.6562924385070801,-0.00493328832089901,0.6355038285255432,0.5545704960823059,-0.005044318735599518,0.6471492648124695,0.46416693925857544,-0.009274828247725964,0.6891958117485046,0.43886640667915344,-0.010907646268606186,0.6826221346855164,0.5184966921806335,0.028958436101675034,0.6727408170700073,0.44727063179016113,0.017768459394574165,0.6703475117683411,0.49212491512298584,0.00748540461063385,0.6739673614501953,0.5260708332061768,0.00277678482234478,0.7131280899047852,0.5092986822128296,0.02610890381038189,0.7044386267662048,0.43606898188591003,0.0070046656765043736,0.6953208446502686,0.5012378096580505,-0.007044827099889517,0.6951126456260681,0.5493009686470032,-0.009530959650874138,0.7425541877746582,0.5028581619262695,0.0196167454123497,0.7366755604743958,0.41474485397338867,0.0031543078366667032,0.7187094688415527,0.4735819101333618,-2.6915144189842977e-05,0.7110983729362488,0.5343887805938721,0.0057198707945644855,0.7747818231582642,0.5031988620758057,0.012336681596934795,0.7721874117851257,0.4174838066101074,0.008338520303368568,0.7644263505935669,0.36032527685165405,0.006981555372476578,0.7578868269920349,0.30918145179748535,0.008620569482445717
j,0.6143220067024231,0.8006972670555115,-2.9320631256268825e-07,0.584994375705719,0.7085621953010559,-0.007927875965833664,0.5966520309448242,0.6074892282485962,-0.010864689946174622,0.6349448561668396,0.5547659397125244,-0.016394002363085747,0.6716403961181641,0.5290260314941406,-0.017926525324583054,0.6276456117630005,0.5532853603363037,0.014641167595982552,0.6503338813781738,0.4753815233707428,-0.0028226389549672604,0.6285271644592285,0.5047801733016968,-0.013184917159378529,0.6162914633750916,0.5425693392753601,-0.016333313658833504,0.656633198261261,0.5693491101264954,0.011260030791163445,0.6843674182891846,0.48872801661491394,-0.013553273864090443,0.6562014222145081,0.5234986543655396,-0.023847192525863647,0.6398634910583496,0.569817304611206,-0.02227979339659214,0.6815345883369446,0.5929819345474243,0.004029647447168827,0.7089065313339233,0.5144521594047546,-0.014031583443284035,0.682034969329834,0.5327204465866089,-0.01391029916703701,0.6645504236221313,0.5663841962814331,-0.007028834894299507,0.7002065777778625,0.6211499571800232,-0.0047494107857346535,0.7331409454345703,0.5628288984298706,-0.013494966551661491,0.7492796182632446,0.5163354277610779,-0.01586367003619671,0.7657430171966553,0.477308452129364,-0.014635882340371609
k,0.6695380806922913,0.8689826130867004,4.500421084685513e-07,0.6144669055938721,0.7986661195755005,-0.012697495520114899,0.5810455679893494,0.6804969310760498,-0.01839318498969078,0.560928463935852,0.5899184942245483,-0.02779206447303295,0.5298085808753967,0.5424354076385498,-0.037029899656772614,0.6266855001449585,0.5649666786193848,-0.006304939277470112,0.6142270565032959,0.45482438802719116,-0.024851055815815926,0.6063867807388306,0.3883824348449707,-0.036887504160404205,0.6012942790985107,0.3272521197795868,-0.04561830684542656,0.6661502718925476,0.5715146660804749,-0.018216004595160484,0.6808884739875793,0.44013506174087524,-0.04162570834159851,0.6888352036476135,0.35905468463897705,-0.057324737310409546,0.6996728181838989,0.28924232721328735,-0.06579511612653732,0.7020823359489441,0.6093981266021729,-0.0326463058590889,0.7043341994285583,0.5377246141433716,-0.06753052026033401,0.6754859685897827,0.6111997365951538,-0.07036547362804413,0.658695638179779,0.6683931946754456,-0.06272204220294952,0.7335293889045715,0.6649446487426758,-0.04781235754489899,0.7246853709220886,0.6164180040359497,-0.07453633099794388,0.6981267929077148,0.6628546714782715,-0.07140583544969559,0.6816393136978149,0.7054353356361389,-0.06305795907974243
l,0.6242654919624329,0.7332990765571594,-1.3959123634776915e-07,0.569428563117981,0.6940028667449951,-0.014603308402001858,0.5191991925239563,0.624301552772522,-0.029903866350650787,0.4743572771549225,0.5987396836280823,-0.04843344911932945,0.4371650218963623,0.6146109700202942,-0.06817308068275452,0.5622632503509521,0.46721401810646057,-0.015409528277814388,0.5450146198272705,0.36058467626571655,-0.03795852139592171,0.5417770147323608,0.2881249785423279,-0.052927225828170776,0.5407857894897461,0.22534969449043274,-0.06496796011924744,0.5978922843933105,0.45605143904685974,-0.024459293112158775,0.5518690347671509,0.469397634267807,-0.05979931727051735,0.5550968647003174,0.5584573745727539,-0.06546610593795776,0.5730557441711426,0.590429961681366,-0.06203524023294449,0.6309080719947815,0.47266411781311035,-0.03647112846374512,0.5836048722267151,0.5084592700004578,-0.06574700027704239,0.5852229595184326,0.5837686061859131,-0.05539071559906006,0.6004559993743896,0.6025246381759644,-0.042095448821783066,0.6612841486930847,0.5038999319076538,-0.051113106310367584,0.619120717048645,0.5288161635398865,-0.06551160663366318,0.6121253371238708,0.5859998464584351,-0.05482104420661926,0.6210141181945801,0.6046659350395203,-0.043214134871959686
m,0.7339146137237549,0.7848705053329468,-4.151459904733201e-07,0.678692102432251,0.7124161124229431,-0.010842682793736458,0.6669507026672363,0.5971417427062988,-0.01908015087246895,0.7094835638999939,0.5257775783538818,-0.0295043233782053,0.7468984127044678,0.47545745968818665,-0.038573309779167175,0.6647343635559082,0.5323895812034607,-0.0032384637743234634,0.6501815319061279,0.43693846464157104,-0.029831182211637497,0.6488078832626343,0.49489301443099976,-0.049019861966371536,0.6535612344741821,0.5622625350952148,-0.05839908868074417,0.7042406797409058,0.5232229828834534,-0.01086877565830946,0.686001718044281,0.4221356213092804,-0.0359295979142189,0.6806932687759399,0.4875175356864929,-0.05104523152112961,0.683925449848175,0.5580105185508728,-0.055974315851926804,0.7454149127006531,0.5350409746170044,-0.022009942680597305,0.7281308174133301,0.42718255519866943,-0.04493473097681999,0.7144178152084351,0.4948562979698181,-0.05136856064200401,0.7085086703300476,0.5599949955940247,-0.05151495337486267,0.7867751717567444,0.5626417398452759,-0.03396603465080261,0.7590726613998413,0.5297931432723999,-0.05207182466983795,0.7400642037391663,0.5878016352653503,-0.05398515984416008,0.7313971519470215,0.6342945694923401,-0.052274707704782486
n,0.700333297252655,0.803610622882843,-4.356826082130283e-07,0.6429333686828613,0.753728449344635,-0.007150762248784304,0.6139734983444214,0.6688868403434753,-0.007010116241872311,0.6214268207550049,0.5877792835235596,-0.009511969052255154,0.6338193416595459,0.5338488817214966,-0.007760302163660526,0.6259626746177673,0.5874912142753601,0.013812472112476826,0.6157289743423462,0.5029336810112,-0.013433655723929405,0.6160419583320618,0.5366947054862976,-0.02401023730635643,0.6227098703384399,0.5898595452308655,-0.023801038041710854,0.6629735231399536,0.5810763239860535,0.008156356401741505,0.6556554436683655,0.49302393198013306,-0.023609938099980354,0.6519625186920166,0.5774753093719482,-0.024944312870502472,0.6531911492347717,0.6246786713600159,-0.013287837617099285,0.6968539953231812,0.5916686654090881,-0.002913488307967782,0.6863181591033936,0.5556832551956177,-0.034489717334508896,0.6784694194793701,0.6430087685585022,-0.022158101201057434,0.6812554001808167,0.6746852993965149,-0.001693996018730104,0.7346742749214172,0.6119793653488159,-0.014855783432722092,0.7173617482185364,0.5786253213882446,-0.030143819749355316,0.7093937397003174,0.6397516131401062,-0.017528383061289787,0.7109344601631165,0.6631218791007996,-0.0015075893606990576
o,0.6506282687187195,0.758064329624176,-4.771735007125244e-07,0.5933724045753479,0.7091624736785889,0.022278597578406334,0.5671379566192627,0.6395227313041687,0.03104238584637642,0.545995831489563,0.5884109735488892,0.02915036678314209,0.5329724550247192,0.5348939299583435,0.02747196890413761,0.6194002032279968,0.5295365452766418,0.05665469169616699,0.5888674259185791,0.46522581577301025,0.05178944021463394,0.5545886754989624,0.46870356798171997,0.040432337671518326,0.5333055257797241,0.49431097507476807,0.034066930413246155,0.6338602900505066,0.5155994892120361,0.03610044717788696,0.5923944711685181,0.43694591522216797,0.03414409980177879,0.5521969795227051,0.44676485657691956,0.023469753563404083,0.5300578474998474,0.4826035499572754,0.01687050051987171,0.6413679718971252,0.5132692456245422,0.01259620115160942,0.598020076751709,0.4281404912471771,0.008162906393408775,0.5553287863731384,0.4456799328327179,0.0033020256087183952,0.5333914160728455,0.483918160200119,0.001407562056556344,0.6379556059837341,0.5189154744148254,-0.010370666161179543,0.5978706479072571,0.43961238861083984,-0.012937025167047977,0.5625010132789612,0.44211071729660034,-0.010702320374548435,0.5393819212913513,0.47208666801452637,-0.007855766452848911
p,0.6423736810684204,0.2732354402542114,1.6588661821970163e-07,0.592716634273529,0.3393270671367645,0.010230818763375282,0.5667223930358887,0.43877923488616943,0.005463682115077972,0.564220130443573,0.52586430311203,-0.001985399052500725,0.5752203464508057,0.5874620079994202,-0.0116553520783782,0.5395053029060364,0.4799920320510864,-0.026783756911754608,0.5098364353179932,0.5930126905441284,-0.04502443969249725,0.4880068898200989,0.6584646105766296,-0.05562582612037659,0.46954506635665894,0.7129549980163574,-0.06217809021472931,0.5667608976364136,0.47918257117271423,-0.039283961057662964,0.5732430219650269,0.6271007061004639,-0.05518592521548271,0.5794615745544434,0.713420033454895,-0.06072770059108734,0.5836085677146912,0.7796287536621094,-0.06575345993041992,0.6021764278411865,0.4701001048088074,-0.048351071774959564,0.6277432441711426,0.5973431468009949,-0.060198333114385605,0.6336817741394043,0.5650956034660339,-0.05158958584070206,0.631213366985321,0.5235872268676758,-0.043824851512908936,0.6380209922790527,0.4579300284385681,-0.05633769929409027,0.6556657552719116,0.5586471557617188,-0.06303044408559799,0.6582677364349365,0.5315980911254883,-0.05277298018336296,0.6528549194335938,0.4947474002838135,-0.04306841641664505
q,0.6122814416885376,0.3398583233356476,5.139964969202993e-07,0.5597848296165466,0.36757221817970276,-0.0657469853758812,0.5285831093788147,0.44767892360687256,-0.10367380082607269,0.5250089764595032,0.536971926689148,-0.12463092803955078,0.517988383769989,0.6124213933944702,-0.14154759049415588,0.6160836219787598,0.40966796875,-0.12537196278572083,0.6162142753601074,0.5395964980125427,-0.1646028608083725,0.6161816120147705,0.6256349682807922,-0.18015310168266296,0.6203754544258118,0.6906468272209167,-0.1869266927242279,0.6519334316253662,0.43384483456611633,-0.09554967284202576,0.6178819537162781,0.5784121751785278,-0.13052010536193848,0.5845772624015808,0.5658006072044373,-0.12265479564666748,0.5742485523223877,0.5220768451690674,-0.1117030531167984,0.6703486442565918,0.46520498394966125,-0.06707253307104111,0.6290079355239868,0.5817606449127197,-0.09574174880981445,0.5995035171508789,0.5578717589378357,-0.08334653079509735,0.5920000672340393,0.5206598043441772,-0.06901108473539352,0.6795929670333862,0.4946099817752838,-0.04272468388080597,0.6448233723640442,0.5874758362770081,-0.060624860227108,0.6239372491836548,0.5688629150390625,-0.058133989572525024,0.6188995838165283,0.5411866307258606,-0.05290235951542854
r,0.6593437194824219,0.7658916711807251,3.069395404509123e-07,0.6057053804397583,0.7102488279342651,-0.006157499738037586,0.5707617402076721,0.6192958354949951,-0.011361273936927319,0.5635923743247986,0.5253930687904358,-0.023176463320851326,0.5844728350639343,0.46023163199424744,-0.03444193676114082,0.5885971188545227,0.5149866938591003,0.018719637766480446,0.5802199840545654,0.41294974088668823,0.004876519087702036,0.5818865895271301,0.34946709871292114,-0.006155430804938078,0.5859233736991882,0.28992146253585815,-0.014106226153671741,0.6155979037284851,0.5022060871124268,0.008030585944652557,0.5943992137908936,0.38172662258148193,-0.009855860844254494,0.576626181602478,0.32683706283569336,-0.021605730056762695,0.564709484577179,0.279477596282959,-0.02749616652727127,0.646468997001648,0.5072118043899536,-0.006451695691794157,0.6256434321403503,0.39768409729003906,-0.03712252527475357,0.6095678806304932,0.47266504168510437,-0.040587007999420166,0.6045148968696594,0.5436292886734009,-0.033537980169057846,0.680479109287262,0.5261955857276917,-0.02159011736512184,0.6546984314918518,0.45585620403289795,-0.04484037309885025,0.6362935304641724,0.5080857276916504,-0.04488150402903557,0.6286798119544983,0.5686399340629578,-0.03921087831258774
s,0.6021011471748352,0.6510120034217834,-2.5582005491742166e-07,0.549206554889679,0.5850002765655518,-0.008455975912511349,0.5326119065284729,0.46666842699050903,-0.01384885236620903,0.5557742118835449,0.3776935935020447,-0.02343761920928955,0.584659218788147,0.3145833909511566,-0.029788551852107048,0.5510405898094177,0.39646798372268677,0.01314319297671318,0.5425605177879333,0.3065415322780609,-0.01688760705292225,0.5328946709632874,0.3513791561126709,-0.03494895249605179,0.5357695817947388,0.4092079997062683,-0.04136170819401741,0.5877564549446106,0.3949446976184845,0.004550307057797909,0.5956265926361084,0.2848033308982849,-0.02981417626142502,0.5746020674705505,0.3229423761367798,-0.04430389404296875,0.5686356425285339,0.3735605776309967,-0.04367842152714729,0.6195206046104431,0.41347551345825195,-0.008914007805287838,0.5973415374755859,0.36230435967445374,-0.038390982896089554,0.5745954513549805,0.4427034556865692,-0.033831991255283356,0.5732675194740295,0.4902099370956421,-0.020468831062316895,0.6497715711593628,0.44117772579193115,-0.023649534210562706,0.6132333278656006,0.420947790145874,-0.03773856163024902,0.6001969575881958,0.4798741042613983,-0.02916872128844261,0.6067433953285217,0.5080738067626953,-0.017219826579093933
t,0.6502623558044434,0.7475104331970215,-5.623401762022695e-07,0.5955989956855774,0.6953077912330627,-0.016600389033555984,0.5710115432739258,0.5776105523109436,-0.023707719519734383,0.5826525688171387,0.47793492674827576,-0.03244984522461891,0.5955849885940552,0.3981916308403015,-0.03786314278841019,0.5822487473487854,0.48215922713279724,-0.002015166450291872,0.5577836036682129,0.4120713472366333,-0.04027949646115303,0.5636805295944214,0.4699955880641937,-0.06361810863018036,0.571155309677124,0.5359724164009094,-0.07140806317329407,0.625056803226471,0.47426101565361023,-0.0062369611114263535,0.609126627445221,0.43376463651657104,-0.044763628393411636,0.6033722162246704,0.5255832672119141,-0.05668812245130539,0.598931074142456,0.5882259607315063,-0.05426803603768349,0.6655338406562805,0.48931774497032166,-0.016671353951096535,0.6465016007423401,0.4921268820762634,-0.05392546206712723,0.6267620921134949,0.5903677344322205,-0.05180349200963974,0.61248379945755,0.6447219848632812,-0.03934529796242714,0.7016178369522095,0.5177423357963562,-0.02863706834614277,0.6822345852851868,0.5215538740158081,-0.04862195625901222,0.6652421355247498,0.5886096358299255,-0.04245121777057648,0.6556400656700134,0.6212692260742188,-0.031248273327946663
u,0.6228379011154175,0.8099148273468018,4.819362402486149e-07,0.5770632028579712,0.7689533233642578,-0.01887003518640995,0.552912712097168,0.6701526045799255,-0.028419820591807365,0.5689184665679932,0.5839686393737793,-0.03961500898003578,0.5921152830123901,0.5288255214691162,-0.04952503740787506,0.5617431402206421,0.5634368062019348,-0.014327761717140675,0.5584871768951416,0.4493265450000763,-0.03531841188669205,0.5599779486656189,0.3816367983818054,-0.04807945713400841,0.5637648105621338,0.322770357131958,-0.055781494826078415,0.5952097177505493,0.5588377714157104,-0.019967634230852127,0.587090253829956,0.43358588218688965,-0.04545265808701515,0.5823158025741577,0.360217809677124,-0.0613241046667099,0.5810787081718445,0.2970547676086426,-0.06868954002857208,0.629901111125946,0.578335702419281,-0.027768796309828758,0.6200197339057922,0.5177454352378845,-0.06099657714366913,0.6052067279815674,0.5960740447044373,-0.0620536245405674,0.5980191230773926,0.6532309055328369,-0.05293254554271698,0.6612001657485962,0.6135786175727844,-0.03706100210547447,0.6411951780319214,0.5883041024208069,-0.06119812652468681,0.6263118982315063,0.6441448330879211,-0.05759376659989357,0.6207271814346313,0.6844209432601929,-0.048548709601163864
v,0.6392356753349304,0.8726353645324707,6.714122946505086e-07,0.5931975841522217,0.8075544238090515,-0.026638414710760117,0.5768895149230957,0.6993280649185181,-0.041511066257953644,0.6056318283081055,0.6115627288818359,-0.057166051119565964,0.6346586346626282,0.5508531332015991,-0.07084386050701141,0.5823805332183838,0.5726739168167114,-0.024659212678670883,0.5615028142929077,0.44909751415252686,-0.04933014512062073,0.54970782995224,0.3704650402069092,-0.06332304328680038,0.5420493483543396,0.301155149936676,-0.0720360055565834,0.6260982751846313,0.5743088722229004,-0.0304330475628376,0.6370331645011902,0.4291054308414459,-0.06054884195327759,0.6464298963546753,0.3386172652244568,-0.07802509516477585,0.656721293926239,0.2629294693470001,-0.08567114919424057,0.6646262407302856,0.6129944324493408,-0.039139553904533386,0.6708648800849915,0.5464374423027039,-0.08200918138027191,0.6484431624412537,0.6340643167495728,-0.08633217960596085,0.6345434784889221,0.6977641582489014,-0.07667871564626694,0.6972202658653259,0.6713517308235168,-0.0493878535926342,0.6933120489120483,0.6344699859619141,-0.0825025737285614,0.6695438623428345,0.69303297996521,-0.08033160865306854,0.6517243385314941,0.7389510869979858,-0.07032418996095657
w,0.6440500617027283,0.844046413898468,2.1564618180036632e-07,0.6041455864906311,0.784690797328949,-0.027353722602128983,0.590802013874054,0.6811564564704895,-0.029694925993680954,0.6324818730354309,0.6060041785240173,-0.02682698331773281,0.6748033165931702,0.5803108811378479,-0.022394724190235138,0.5935859680175781,0.5638083815574646,-0.011642245575785637,0.5751991868019104,0.4504965543746948,-0.01899934932589531,0.5674368739128113,0.3864358365535736,-0.02660379558801651,0.562913179397583,0.3274848759174347,-0.033122409135103226,0.6337875723838806,0.5552234649658203,-0.011911588720977306,0.6309689879417419,0.42576301097869873,-0.014885789714753628,0.6317352056503296,0.35578617453575134,-0.022209424525499344,0.6338004469871521,0.2916923463344574,-0.028423307463526726,0.6662585735321045,0.5736520886421204,-0.01699104532599449,0.6773840188980103,0.46084970235824585,-0.03243851661682129,0.6813989877700806,0.39505162835121155,-0.05083688348531723,0.6848087310791016,0.32700079679489136,-0.06286042183637619,0.6973525285720825,0.6241206526756287,-0.024046439677476883,0.7008496522903442,0.5393718481063843,-0.0352821871638298,0.6918407678604126,0.5704211592674255,-0.03384731709957123,0.6831788420677185,0.6217235922813416,-0.0333847813308239
x,0.627079427242279,0.8273228406906128,-1.7188396839173947e-07,0.5870088934898376,0.793505847454071,-0.03160984069108963,0.5511484742164612,0.7029800415039062,-0.05174955725669861,0.5489155054092407,0.6246523261070251,-0.07177627086639404,0.5847537517547607,0.6068398952484131,-0.0879606381058693,0.5870081186294556,0.5377882122993469,-0.018705589696764946,0.5878147482872009,0.44479331374168396,-0.05299923196434975,0.578813374042511,0.3973153829574585,-0.07186778634786606,0.5727906227111816,0.36846455931663513,-0.08330056071281433,0.6330221891403198,0.5480695366859436,-0.021797943860292435,0.6435258388519287,0.5223368406295776,-0.0677538737654686,0.618831992149353,0.6053487062454224,-0.07411934435367584,0.6090021729469299,0.6305820345878601,-0.06597761809825897,0.6708242297172546,0.5860438942909241,-0.03166067227721214,0.666344940662384,0.6218180060386658,-0.0696004256606102,0.6385401487350464,0.6850141882896423,-0.060818564146757126,0.6335693001747131,0.6755053400993347,-0.04498837888240814,0.7018786072731018,0.638839840888977,-0.045855164527893066,0.692213237285614,0.6850621700286865,-0.0647866427898407,0.6658788919448853,0.7279064655303955,-0.0589643232524395,0.6577996015548706,0.7157347202301025,-0.04956395551562309
y,0.6748157739639282,0.7447827458381653,-5.226286816650827e-07,0.6113491654396057,0.6798521876335144,-0.005529856309294701,0.5753133893013,0.6112983822822571,-0.009997782297432423,0.5516980886459351,0.5415196418762207,-0.016456717625260353,0.525878369808197,0.5200659036636353,-0.018312744796276093,0.6335433721542358,0.5135359168052673,0.004191330634057522,0.6306991577148438,0.45032209157943726,-0.01794309914112091,0.6255295276641846,0.5170502066612244,-0.02970181778073311,0.6234007477760315,0.5682701468467712,-0.0336148664355278,0.6657359600067139,0.5108746290206909,0.0018430363852530718,0.6635890603065491,0.4522818624973297,-0.027897344902157784,0.6514196395874023,0.538692831993103,-0.03924140706658363,0.6457100510597229,0.5806615352630615,-0.04127408191561699,0.6968119144439697,0.5189232230186462,-0.002460031770169735,0.7000004053115845,0.45630279183387756,-0.02660946547985077,0.6820544600486755,0.5301454067230225,-0.020526858046650887,0.673251211643219,0.5796922445297241,-0.009441041387617588,0.7273414731025696,0.5379270315170288,-0.007343655452132225,0.7436336278915405,0.4584755599498749,-0.020212292671203613,0.7485938668251038,0.4159829616546631,-0.018154215067625046,0.7528280019760132,0.36196815967559814,-0.012791802175343037
z,0.5951471328735352,0.7841259241104126,-1.3228630280082143e-07,0.5553262829780579,0.7240612506866455,-0.019250553101301193,0.5339847207069397,0.6354968547821045,-0.03514823317527771,0.5347651243209839,0.5566093921661377,-0.053297627717256546,0.5570743083953857,0.5034006834030151,-0.06971830129623413,0.5819422006607056,0.5164287686347961,-0.01355214137583971,0.5960648655891418,0.41595029830932617,-0.0399637408554554,0.6079660654067993,0.3571869134902954,-0.05173308402299881,0.6250361204147339,0.3072918951511383,-0.05854783579707146,0.6160235404968262,0.5332087278366089,-0.017662351951003075,0.586864709854126,0.49977558851242065,-0.05256916582584381,0.5669048428535461,0.5822176933288574,-0.051714178174734116,0.5761304497718811,0.6051382422447205,-0.04168371111154556,0.6429178714752197,0.5641511678695679,-0.02634553238749504,0.60713130235672,0.5627836585044861,-0.0584697425365448,0.5857161283493042,0.6345678567886353,-0.042116645723581314,0.5939652919769287,0.6476472020149231,-0.022088060155510902,0.6637643575668335,0.6060306429862976,-0.037949420511722565,0.6301672458648682,0.60368812084198,-0.05379992350935936,0.6083523035049438,0.6512318253517151,-0.0414421521127224,0.6107120513916016,0.6659705638885498,-0.02673632651567459
